time,psi_deg,target_psi_deg,angle_error_deg,omega_rad_s,u_cmd,roll_deg,pitch_deg,moment_nm,horizon,q_angle,q_terminal,q_omega,r_u,r_du,solver_success
0.0,-0.06961309086743768,-90.0,-89.93038690913257,-0.01214977638126783,-0.06,-5.0,3.0000000000000004,4025.697883249793,37,8.536759717766639,144.15418729949874,1.0147038871066556,0.03201284894162489,3.8051395766499585,True
0.1,-0.2088392726023131,-90.0,-89.79116072739768,-0.02429955276253567,-0.12,-5.0,3.0000000000000004,4025.697883249793,37,8.536759717766639,144.15418729949874,1.0147038871066556,0.03201284894162489,3.8051395766499585,True
0.2,-0.4176785452046262,-90.0,-89.58232145479536,-0.0364493291438035,-0.18,-5.0,3.0000000000000004,4025.697883249793,37,8.536759717766639,144.15418729949874,1.0147038871066556,0.03201284894162489,3.8051395766499585,True
0.30000000000000004,-0.696130908674377,-90.0,-89.30386909132562,-0.04859910552507132,-0.24,-5.0,3.0000000000000004,4025.697883249793,37,8.536759717766639,144.15418729949874,1.0147038871066556,0.03201284894162489,3.8051395766499585,True
0.4,-1.0441963630115656,-90.0,-88.95580363698843,-0.06074888190633916,-0.3,-5.0,3.0000000000000004,4025.697883249793,37,8.536759717766639,144.15418729949874,1.0147038871066556,0.03201284894162489,3.8051395766499585,True
0.5,-1.4618749082161917,-90.0,-88.5381250917838,-0.072898658287607,-0.36,-5.0,3.0000000000000004,4025.697883249793,37,8.536759717766639,144.15418729949874,1.0147038871066556,0.03201284894162489,3.8051395766499585,True
0.6000000000000001,-1.956661169020723,-90.0,-88.04333883097927,-0.0863564934467044,-0.42,-5.0,3.0000000000000004,4025.697883249793,37,8.536759717766639,144.15418729949874,1.0147038871066556,0.03201284894162489,3.8051395766499585,True
0.7000000000000001,-2.543544394890095,-90.0,-87.4564556051099,-0.10243044616146103,-0.48,-5.0,3.0000000000000004,4025.697883249793,37,8.536759717766639,144.15418729949874,1.0147038871066556,0.03201284894162489,3.8051395766499585,True
0.8,-3.2834767807747927,-90.0,-86.71652321922521,-0.12914256375825184,-0.54,-5.0,3.0000000000000004,4025.697883249793,37,8.536759717766639,144.15418729949874,1.0147038871066556,0.03201284894162489,3.8051395766499585,True
0.9,-4.206934424150057,-90.0,-85.79306557584995,-0.1611737637960597,-0.6000000000000001,-5.0,3.0000000000000004,4025.697883249793,36,8.536759717766639,144.15418729949874,1.0147038871066556,0.03201284894162489,3.8051395766499585,True
1.0,-5.226216673000489,-90.0,-84.7737833269995,-0.17789831249572224,-0.6600000000000001,-5.0,3.0000000000000004,4025.697883249793,36,8.536759717766639,144.15418729949874,1.0147038871066556,0.03201284894162489,3.8051395766499585,True
1.1,-6.468895138304674,-90.0,-83.53110486169533,-0.21688830763188138,-0.7200000000000002,-5.0,3.0000000000000004,4025.697883249793,36,8.536759717766639,144.15418729949874,1.0147038871066556,0.03201284894162489,3.8051395766499585,True
1.2000000000000002,-8.190113042019776,-90.0,-81.80988695798023,-0.30040919564103286,-0.7800000000000002,-5.0,3.0000000000000004,4025.697883249793,35,8.536759717766639,144.15418729949874,1.0147038871066556,0.03201284894162489,3.8051395766499585,True
1.3,-10.245732560425568,-90.0,-79.75426743957443,-0.35877328764441213,-0.8400000000000003,-5.0,3.0000000000000004,4025.697883249793,35,8.536759717766639,144.15418729949874,1.0147038871066556,0.03201284894162489,3.8051395766499585,True
1.4000000000000001,-12.563684781661927,-90.0,-77.43631521833807,-0.40455898164490506,-0.8999999999999999,-5.0,3.0000000000000004,4025.697883249793,34,8.536759717766639,144.15418729949874,1.0147038871066556,0.03201284894162489,3.8051395766499585,True
1.5,-14.881637002898287,-90.0,-75.11836299710171,-0.40455898164490506,-0.8999999999999999,-5.0,3.0000000000000004,4025.697883249793,33,8.536759717766639,144.15418729949874,1.0147038871066556,0.03201284894162489,3.8051395766499585,True
1.6,-17.11214498985779,-90.0,-72.88785501014222,-0.38929708364474064,-0.8799999999999999,-5.0,3.0000000000000004,4025.697883249793,33,8.536759717766639,144.15418729949874,1.0147038871066556,0.03201284894162489,3.8051395766499585,True
1.7000000000000002,-19.34265297681729,-90.0,-70.65734702318271,-0.38929708364474064,-0.8799999999999999,-5.0,3.0000000000000004,4025.697883249793,32,8.536759717766639,144.15418729949874,1.0147038871066556,0.03201284894162489,3.8051395766499585,True
1.8,-21.573160963776797,-90.0,-68.4268390362232,-0.38929708364474064,-0.8799999999999999,-5.0,3.0000000000000004,4025.697883249793,31,8.536759717766639,144.15418729949874,1.0147038871066556,0.03201284894162489,3.8051395766499585,True
1.9000000000000001,-23.71622471645944,-90.0,-66.28377528354056,-0.3740351856445762,-0.8599999999999999,-5.0,3.0000000000000004,4025.697883249793,31,8.536759717766639,144.15418729949874,1.0147038871066556,0.03201284894162489,3.8051395766499585,True
2.0,-25.859288469142086,-90.0,-64.14071153085791,-0.3740351856445762,-0.8599999999999999,-5.0,3.0000000000000004,4025.697883249793,30,8.536759717766639,144.15418729949874,1.0147038871066556,0.03201284894162489,3.8051395766499585,True
2.1,-28.00235222182473,-90.0,-61.99764777817526,-0.3740351856445762,-0.8599999999999999,-5.0,3.0000000000000004,4025.697883249793,29,8.536759717766639,144.15418729949874,1.0147038871066556,0.03201284894162489,3.8051395766499585,True
2.2,-30.05797174023052,-90.0,-59.94202825976948,-0.3587732876444118,-0.8399999999999999,-5.0,3.0000000000000004,4025.697883249793,29,8.536759717766639,144.15418729949874,1.0147038871066556,0.03201284894162489,3.8051395766499585,True
2.3000000000000003,-32.113591258636305,-90.0,-57.88640874136369,-0.3587732876444118,-0.8399999999999999,-5.0,3.0000000000000004,4025.697883249793,28,8.536759717766639,144.15418729949874,1.0147038871066556,0.03201284894162489,3.8051395766499585,True
2.4000000000000004,-34.169210777042096,-90.0,-55.830789222957904,-0.3587732876444118,-0.8399999999999999,-5.0,3.0000000000000004,4025.697883249793,28,8.536759717766639,144.15418729949874,1.0147038871066556,0.03201284894162489,3.8051395766499585,True
2.5,-36.22483029544788,-90.0,-53.77516970455212,-0.3587732876444118,-0.8399999999999999,-5.0,3.0000000000000004,4025.697883249793,27,8.536759717766639,144.15418729949874,1.0147038871066556,0.03201284894162489,3.8051395766499585,True
2.6,-38.28044981385367,-90.0,-51.71955018614633,-0.3587732876444118,-0.8399999999999999,-5.0,3.0000000000000004,4025.697883249793,26,8.536759717766639,144.15418729949874,1.0147038871066556,0.03201284894162489,3.8051395766499585,True
2.7,-40.248625097982604,-90.0,-49.751374902017396,-0.3435113896442473,-0.8199999999999998,-5.0,3.0000000000000004,4025.697883249793,26,8.536759717766639,144.15418729949874,1.0147038871066556,0.03201284894162489,3.8051395766499585,True
2.8000000000000003,-42.216800382111536,-90.0,-47.783199617888464,-0.3435113896442473,-0.8199999999999998,-5.0,3.0000000000000004,4025.697883249793,25,8.536759717766639,144.15418729949874,1.0147038871066556,0.03201284894162489,3.8051395766499585,True
2.9000000000000004,-44.18497566624047,-90.0,-45.81502433375953,-0.3435113896442473,-0.8199999999999998,-5.0,3.0000000000000004,4025.697883249793,24,8.536759717766639,144.15418729949874,1.0147038871066556,0.03201284894162489,3.8051395766499585,True
3.0,-46.065706716092535,-90.0,-43.934293283907465,-0.32824949164408274,-0.7999999999999998,-5.0,3.0000000000000004,4025.697883249793,24,8.536759717766639,144.15418729949874,1.0147038871066556,0.03201284894162489,3.8051395766499585,True
3.1,-47.94643776594461,-90.0,-42.05356223405539,-0.32824949164408274,-0.7999999999999998,-5.0,3.0000000000000004,4025.697883249793,23,8.536759717766639,144.15418729949874,1.0147038871066556,0.03201284894162489,3.8051395766499585,True
3.2,-49.66765566965971,-90.0,-40.33234433034029,-0.30040919564103225,-0.7799999999999998,-5.0,3.0000000000000004,4025.697883249793,23,8.536759717766639,144.15418729949874,1.0147038871066556,0.03201284894162489,3.8051395766499585,True
3.3000000000000003,-51.388873573374816,-90.0,-38.611126426625184,-0.30040919564103225,-0.7799999999999998,-5.0,3.0000000000000004,4025.697883249793,22,8.536759717766639,144.15418729949874,1.0147038871066556,0.03201284894162489,3.8051395766499585,True
3.4000000000000004,-53.11009147708992,-90.0,-36.88990852291008,-0.30040919564103225,-0.7799999999999998,-5.0,3.0000000000000004,4025.697883249793,22,8.536759717766639,144.15418729949874,1.0147038871066556,0.03201284894162489,3.8051395766499585,True
3.5,-54.83130938080502,-90.0,-35.16869061919498,-0.30040919564103225,-0.7799999999999998,-5.0,3.0000000000000004,4025.697883249793,21,8.536759717766639,144.15418729949874,1.0147038871066556,0.03201284894162489,3.8051395766499585,True
3.6,-56.393014138383144,-90.0,-33.606985861616856,-0.2725688996379817,-0.7599999999999998,-5.0,3.0000000000000004,4025.697883249793,21,8.536759717766639,144.15418729949874,1.0147038871066556,0.03201284894162489,3.8051395766499585,True
3.7,-57.95471889596127,-90.0,-32.04528110403873,-0.2725688996379817,-0.7599999999999998,-5.0,3.0000000000000004,4025.697883249793,20,8.536759717766639,144.15418729949874,1.0147038871066556,0.03201284894162489,3.8051395766499585,True
3.8000000000000003,-59.5164236535394,-90.0,-30.483576346460598,-0.2725688996379817,-0.7599999999999998,-5.0,3.0000000000000004,4025.697883249793,20,8.536759717766639,144.15418729949874,1.0147038871066556,0.03201284894162489,3.8051395766499585,True
3.9000000000000004,-61.078128411117525,-90.0,-28.921871588882475,-0.2725688996379817,-0.7599999999999998,-5.0,3.0000000000000004,4025.697883249793,19,8.536759717766639,144.15418729949874,1.0147038871066556,0.03201284894162489,3.8051395766499585,True
4.0,-62.48032002255868,-90.0,-27.519679977441317,-0.24472860363493126,-0.7399999999999998,-5.0,3.0000000000000004,4025.697883249793,19,8.536759717766639,144.15418729949874,1.0147038871066556,0.03201284894162489,3.8051395766499585,True
4.1000000000000005,-63.88251163399984,-90.0,-26.117488366000163,-0.24472860363493126,-0.7399999999999998,-5.0,3.0000000000000004,4025.697883249793,18,8.536759717766639,144.15418729949874,1.0147038871066556,0.03201284894162489,3.8051395766499585,True
4.2,-65.284703245441,-90.0,-24.715296754559006,-0.24472860363493126,-0.7399999999999998,-5.0,3.0000000000000004,4025.697883249793,18,8.536759717766639,144.15418729949874,1.0147038871066556,0.03201284894162489,3.8051395766499585,True
4.3,-66.68689485688215,-90.0,-23.31310514311785,-0.24472860363493126,-0.7399999999999998,-5.0,3.0000000000000004,4025.697883249793,17,8.536759717766639,144.15418729949874,1.0147038871066556,0.03201284894162489,3.8051395766499585,True
4.4,-67.92957332218634,-90.0,-22.070426677813664,-0.21688830763188074,-0.7199999999999998,-5.0,3.0000000000000004,4025.697883249793,17,8.536759717766639,144.15418729949874,1.0147038871066556,0.03201284894162489,3.8051395766499585,True
4.5,-69.17225178749052,-90.0,-20.827748212509476,-0.21688830763188074,-0.7199999999999998,-5.0,3.0000000000000004,4025.697883249793,17,8.536759717766639,144.15418729949874,1.0147038871066556,0.03201284894162489,3.8051395766499585,True
4.6000000000000005,-70.4149302527947,-90.0,-19.58506974720529,-0.21688830763188074,-0.7199999999999998,-5.0,3.0000000000000004,4025.697883249793,16,8.536759717766639,144.15418729949874,1.0147038871066556,0.03201284894162489,3.8051395766499585,True
4.7,-71.49809557196191,-90.0,-18.501904428038085,-0.18904801162883053,-0.6999999999999997,-5.0,3.0000000000000004,4025.697883249793,16,8.536759717766639,144.15418729949874,1.0147038871066556,0.03201284894162489,3.8051395766499585,True
4.800000000000001,-72.58126089112912,-90.0,-17.41873910887088,-0.18904801162883053,-0.6999999999999997,-5.0,3.0000000000000004,4025.697883249793,16,8.536759717766639,144.15418729949874,1.0147038871066556,0.03201284894162489,3.8051395766499585,True
4.9,-73.66442621029633,-90.0,-16.335573789703677,-0.18904801162883053,-0.6999999999999997,-5.0,3.0000000000000004,4025.697883249793,15,8.536759717766639,144.15418729949874,1.0147038871066556,0.03201284894162489,3.8051395766499585,True
5.0,-74.74759152946352,-90.0,-15.252408470536473,-0.18904801162883053,-0.6999999999999997,-5.0,3.0000000000000004,4025.697883249793,15,8.536759717766639,144.15418729949874,1.0147038871066556,0.03201284894162489,3.8051395766499585,True
5.1000000000000005,-75.73493224315557,-90.0,-14.265067756844436,-0.17232346292916795,-0.6399999999999997,-5.0,3.0000000000000004,4025.697883249793,15,8.536759717766639,144.15418729949874,1.0147038871066556,0.03201284894162489,3.8051395766499585,True
5.2,-76.7222729568476,-90.0,-13.2777270431524,-0.17232346292916795,-0.6399999999999997,-5.0,3.0000000000000004,4025.697883249793,14,8.536759717766639,144.15418729949874,1.0147038871066556,0.03201284894162489,3.8051395766499585,True
5.300000000000001,-77.64573060022286,-90.0,-12.354269399777142,-0.16117376379605947,-0.5999999999999996,-5.0,3.0000000000000004,4025.697883249793,14,8.536759717766639,144.15418729949874,1.0147038871066556,0.03201284894162489,3.8051395766499585,True
5.4,-78.50801315776793,-90.0,-11.491986842232063,-0.15049669711679017,-0.5799999999999996,-5.0,3.0000000000000004,4025.697883249793,14,8.536759717766639,144.15418729949874,1.0147038871066556,0.03201284894162489,3.8051395766499585,True
5.5,-79.37029571531302,-90.0,-10.629704284686984,-0.15049669711679017,-0.5799999999999996,-5.0,3.0000000000000004,4025.697883249793,13,8.536759717766639,144.15418729949874,1.0147038871066556,0.03201284894162489,3.8051395766499585,True
5.6000000000000005,-80.1714031870279,-90.0,-9.8285968129721,-0.13981963043752088,-0.5599999999999996,-5.0,3.0000000000000004,4025.697883249793,13,8.536759717766639,144.15418729949874,1.0147038871066556,0.03201284894162489,3.8051395766499585,True
5.7,-80.91133557291259,-90.0,-9.088664427087405,-0.1291425637582516,-0.5399999999999996,-5.0,3.0000000000000004,4025.697883249793,13,8.536759717766639,144.15418729949874,1.0147038871066556,0.03201284894162489,3.8051395766499585,True
5.800000000000001,-81.5900928729671,-90.0,-8.409907127032893,-0.1184654970789823,-0.5199999999999996,-5.0,3.0000000000000004,4025.697883249793,13,8.536759717766639,144.15418729949874,1.0147038871066556,0.03201284894162489,3.8051395766499585,True
5.9,-82.20767508719143,-90.0,-7.792324912808573,-0.10778843039971311,-0.49999999999999956,-5.0,3.0000000000000004,4025.697883249793,13,8.536759717766639,144.15418729949874,1.0147038871066556,0.03201284894162489,3.8051395766499585,True
6.0,-82.82525730141575,-90.0,-7.174742698584253,-0.10778843039971311,-0.49999999999999956,-5.0,3.0000000000000004,4025.697883249793,12,8.536759717766639,144.15418729949874,1.0147038871066556,0.03201284894162489,3.8051395766499585,True
6.1000000000000005,-83.41214052728512,-90.0,-6.5878594727148805,-0.10243044616146091,-0.47999999999999954,-5.0,3.0000000000000004,4025.697883249793,12,8.536759717766639,144.15418729949874,1.0147038871066556,0.03201284894162489,3.8051395766499585,True
6.2,-83.93762577644459,-90.0,-6.062374223555403,-0.0917144776849565,-0.4399999999999995,-5.0,3.0000000000000004,4025.697883249793,12,8.536759717766639,144.15418729949874,1.0147038871066556,0.03201284894162489,3.8051395766499585,True
6.300000000000001,-84.43241203724912,-90.0,-5.5675879627508715,-0.08635649344670428,-0.4199999999999995,-5.0,3.0000000000000004,4025.697883249793,12,8.536759717766639,144.15418729949874,1.0147038871066556,0.03201284894162489,3.8051395766499585,True
6.4,-84.85009058245376,-90.0,-5.14990941754624,-0.07289865828760689,-0.3599999999999995,-5.0,3.0000000000000004,4025.697883249793,12,8.536759717766639,144.15418729949874,2.311939998854041,0.03201284894162489,3.8051395766499585,True
6.5,-85.19815603679095,-90.0,-4.801843963209056,-0.06074888190633905,-0.2999999999999995,-5.0,3.0000000000000004,4025.697883249793,12,8.536759717766639,144.15418729949874,3.564975634467936,0.03201284894162489,3.8051395766499585,True
6.6000000000000005,-85.49981276388317,-90.0,-4.500187236116824,-0.05264903098549381,-0.25999999999999934,-5.0,3.0000000000000004,4025.697883249793,11,8.536759717766639,144.15418729949874,4.609171997479487,0.03201284894162489,3.8051395766499585,True
6.7,-85.75506076373044,-90.0,-4.244939236269556,-0.04454918006464858,-0.2199999999999993,-5.0,3.0000000000000004,4025.697883249793,11,8.536759717766639,144.15418729949874,5.514142178756185,0.03201284894162489,3.8051395766499585,True
6.800000000000001,-85.98710439995523,-90.0,-4.0128956000447715,-0.040499254604225966,-0.1999999999999993,-5.0,3.0000000000000004,4025.697883249793,11,8.536759717766639,144.15418729949874,6.279886178297987,0.03201284894162489,3.8051395766499585,True
6.9,-86.19594367255755,-90.0,-3.8040563274424555,-0.03644932914380335,-0.17999999999999927,-5.0,3.0000000000000004,4025.697883249793,11,8.536759717766639,144.15418729949874,6.976017086972343,0.03201284894162489,3.8051395766499585,True
7.0,-86.38157858153738,-90.0,-3.6184214184626224,-0.032399403683380734,-0.15999999999999925,-5.0,3.0000000000000004,4025.697883249793,11,8.536759717766639,144.15418729949874,7.60253490477929,0.03201284894162489,3.8051395766499585,True
7.1000000000000005,-86.54400912689472,-90.0,-3.455990873105271,-0.02834947822295812,-0.13999999999999924,-5.0,3.0000000000000004,4025.697883249793,11,8.536759717766639,144.15418729949874,8.15943963171879,0.03201284894162489,3.8051395766499585,True
7.2,-86.70643967225207,-90.0,-3.29356032774792,-0.02834947822295812,-0.13999999999999924,-5.0,3.0000000000000004,4025.697883249793,11,8.536759717766639,144.15418729949874,8.646731267790843,0.03201284894162489,3.8051395766499585,True
7.300000000000001,-86.84566585398694,-90.0,-3.154334146013052,-0.024299552762535506,-0.11999999999999922,-5.0,3.0000000000000004,4025.697883249793,11,8.536759717766639,144.15418729949874,9.134022903862896,0.03201284894162489,3.8051395766499585,True
7.4,-86.98489203572181,-90.0,-3.015107964278183,-0.024299552762535506,-0.11999999999999922,-5.0,3.0000000000000004,4025.697883249793,11,8.536759717766639,144.15418729949874,9.551701449067501,0.03201284894162489,3.8051395766499585,True
7.5,-87.10091385383421,-90.0,-2.899086146165784,-0.020249627302112893,-0.0999999999999992,-5.0,3.0000000000000004,4025.697883249793,11,8.536759717766639,144.15418729949874,9.969379994272108,0.03201284894162489,3.8051395766499585,True
7.6000000000000005,-87.21693567194662,-90.0,-2.783064328053385,-0.020249627302112893,-0.0999999999999992,-5.0,3.0000000000000004,4025.697883249793,11,8.536759717766639,144.15418729949874,10.317445448609304,0.03201284894162489,3.8051395766499585,True
7.7,-87.33295749005902,-90.0,-2.6670425099409862,-0.020249627302112893,-0.0999999999999992,-5.0,3.0000000000000004,4025.697883249793,11,8.536759717766639,144.15418729949874,10.6655109029465,0.03201284894162489,3.8051395766499585,True
7.800000000000001,-87.42577494454893,-90.0,-2.5742250554510693,-0.01619970184169028,-0.07999999999999918,-5.0,3.0000000000000004,4025.697883249793,11,8.536759717766639,144.15418729949874,11.013576357283698,0.03201284894162489,3.8051395766499585,True
7.9,-87.51859239903885,-90.0,-2.4814076009611528,-0.01619970184169028,-0.07999999999999918,-5.0,3.0000000000000004,4025.697883249793,11,8.536759717766639,144.15418729949874,11.29202872075345,0.03201284894162489,3.8051395766499585,True
8.0,-87.61140985352877,-90.0,-2.3885901464712362,-0.01619970184169028,-0.07999999999999918,-5.0,3.0000000000000004,4025.697883249793,11,8.536759717766639,144.15418729949874,11.570481084223198,0.03201284894162489,3.8051395766499585,True
8.1,-87.70422730801867,-90.0,-2.2957726919813197,-0.01619970184169028,-0.07999999999999918,-5.0,3.0000000000000004,4025.697883249793,11,8.536759717766639,144.15418729949874,11.848933447692948,0.03201284894162489,3.8051395766499585,True
8.200000000000001,-87.79704476250859,-90.0,-2.2029552374914028,-0.01619970184169028,-0.07999999999999918,-5.0,3.0000000000000004,4025.697883249793,11,8.536759717766639,144.15418729949874,12.127385811162698,0.03201284894162489,3.8051395766499585,True
8.3,-87.86665785337603,-90.0,-2.1333421466239684,-0.012149776381267663,-0.059999999999999165,-5.0,3.0000000000000004,4025.697883249793,11,8.536759717766639,144.15418729949874,12.405838174632446,0.03201284894162489,3.8051395766499585,True
8.4,-87.93627094424346,-90.0,-2.0637290557565344,-0.012149776381267663,-0.059999999999999165,-5.0,3.0000000000000004,4025.697883249793,11,8.536759717766639,144.15418729949874,12.614677447234751,0.03201284894162489,3.8051395766499585,True
8.5,-88.0058840351109,-90.0,-1.9941159648891,-0.012149776381267663,-0.059999999999999165,-5.0,3.0000000000000004,4025.697883249793,11,8.536759717766639,144.15418729949874,12.823516719837054,0.03201284894162489,3.8051395766499585,True
8.6,-88.07549712597833,-90.0,-1.9245028740216656,-0.012149776381267663,-0.059999999999999165,-5.0,3.0000000000000004,4025.697883249793,11,8.536759717766639,144.15418729949874,13.032355992439356,0.03201284894162489,3.8051395766499585,True
8.700000000000001,-88.14511021684577,-90.0,-1.8548897831542313,-0.012149776381267663,-0.059999999999999165,-5.0,3.0000000000000004,4025.697883249793,11,8.536759717766639,144.15418729949874,13.241195265041661,0.03201284894162489,3.8051395766499585,True
8.8,-88.2147233077132,-90.0,-1.785276692286797,-0.012149776381267663,-0.059999999999999165,-5.0,3.0000000000000004,4025.697883249793,11,8.536759717766639,144.15418729949874,13.450034537643964,0.03201284894162489,3.8051395766499585,True
8.9,-88.28433639858063,-90.0,-1.7156636014193627,-0.012149776381267663,-0.059999999999999165,-5.0,3.0000000000000004,4025.697883249793,11,8.536759717766639,144.15418729949874,13.658873810246266,0.03201284894162489,3.8051395766499585,True
9.0,-88.33074512582559,-90.0,-1.6692548741744107,-0.008099850920845048,-0.03999999999999915,-5.0,3.0000000000000004,4025.697883249793,10,8.536759717766639,144.15418729949874,13.867713082848567,0.03201284894162489,3.8051395766499585,True
9.1,-88.37715385307054,-90.0,-1.6228461469294588,-0.008099850920845048,-0.03999999999999915,-5.0,3.0000000000000004,4025.697883249793,10,8.536759717766639,144.15418729949874,14.006939264583423,0.03201284894162489,3.8051395766499585,True
9.200000000000001,-88.42356258031549,-90.0,-1.5764374196845068,-0.008099850920845048,-0.03999999999999915,-5.0,3.0000000000000004,4025.697883249793,10,8.536759717766639,144.15418729949874,14.146165446318278,0.03201284894162489,3.8051395766499585,True
9.3,-88.46997130756044,-90.0,-1.5300286924395547,-0.008099850920845048,-0.03999999999999915,-5.0,3.0000000000000004,4025.697883249793,10,8.536759717766639,144.15418729949874,14.285391628053135,0.03201284894162489,3.8051395766499585,True
9.4,-88.5163800348054,-90.0,-1.483619965194603,-0.008099850920845048,-0.03999999999999915,-5.0,3.0000000000000004,4025.697883249793,10,8.536759717766639,144.15418729949874,14.424617809787993,0.03201284894162489,3.8051395766499585,True
9.5,-88.56278876205035,-90.0,-1.4372112379496509,-0.008099850920845048,-0.03999999999999915,-5.0,3.0000000000000004,4025.697883249793,10,8.536759717766639,144.15418729949874,14.563843991522848,0.03201284894162489,3.8051395766499585,True
9.600000000000001,-88.6091974892953,-90.0,-1.390802510704699,-0.008099850920845048,-0.03999999999999915,-5.0,3.0000000000000004,4025.697883249793,10,8.536759717766639,144.15418729949874,14.703070173257702,0.03201284894162489,3.8051395766499585,True
9.700000000000001,-88.65560621654025,-90.0,-1.344393783459747,-0.008099850920845048,-0.03999999999999915,-5.0,3.0000000000000004,4025.697883249793,10,8.536759717766639,144.15418729949874,14.842296354992559,0.03201284894162489,3.8051395766499585,True
9.8,-88.7020149437852,-90.0,-1.297985056214795,-0.008099850920845048,-0.03999999999999915,-5.0,3.0000000000000004,4025.697883249793,10,8.536759717766639,144.15418729949874,14.981522536727416,0.03201284894162489,3.8051395766499585,True
9.9,-88.74842367103015,-90.0,-1.2515763289698432,-0.008099850920845048,-0.03999999999999915,-5.0,3.0000000000000004,4025.697883249793,10,8.536759717766639,144.15418729949874,15.12074871846227,0.03201284894162489,3.8051395766499585,True
10.0,-88.7948323982751,-90.0,-1.2051676017248911,-0.008099850920845048,-0.03999999999999915,-5.0,3.0000000000000004,4025.697883249793,10,8.536759717766639,144.15418729949874,15.259974900197127,0.03201284894162489,3.8051395766499585,True
10.100000000000001,-88.84124112552006,-90.0,-1.158758874479939,-0.008099850920845048,-0.03999999999999915,-5.0,3.0000000000000004,4025.697883249793,10,8.536759717766639,144.15418729949874,15.399201081931983,0.03201284894162489,3.8051395766499585,True
10.200000000000001,-88.86444548914254,-90.0,-1.1355545108574567,-0.004049925460422434,-0.01999999999999913,-5.0,3.0000000000000004,4025.697883249793,10,8.536759717766639,144.15418729949874,15.53842726366684,0.03201284894162489,3.8051395766499585,True
10.3,-88.88764985276502,-90.0,-1.1123501472349744,-0.004049925460422434,-0.01999999999999913,-5.0,3.0000000000000004,4025.697883249793,10,8.536759717766639,144.15418729949874,15.608040354534285,0.03201284894162489,3.8051395766499585,True
10.4,-88.9108542163875,-90.0,-1.089145783612492,-0.004049925460422434,-0.01999999999999913,-5.0,3.0000000000000004,4025.697883249793,10,8.536759717766639,144.15418729949874,15.677653445401731,0.03201284894162489,3.8051395766499585,True
10.5,-88.93405858000999,-90.0,-1.0659414199900097,-0.004049925460422434,-0.01999999999999913,-5.0,3.0000000000000004,4025.697883249793,10,8.536759717766639,144.15418729949874,15.74726653626918,0.03201284894162489,3.8051395766499585,True
10.600000000000001,-88.95726294363247,-90.0,-1.0427370563675273,-0.004049925460422434,-0.01999999999999913,-5.0,3.0000000000000004,4025.697883249793,10,8.536759717766639,144.15418729949874,15.816879627136627,0.03201284894162489,3.8051395766499585,True
10.700000000000001,-88.98046730725495,-90.0,-1.019532692745045,-0.004049925460422434,-0.01999999999999913,-5.0,3.0000000000000004,4025.697883249793,10,8.536759717766639,144.15418729949874,15.886492718004073,0.03201284894162489,3.8051395766499585,True
10.8,-89.00367167087744,-90.0,-0.9963283291225628,-0.004049925460422434,-0.01999999999999913,-5.0,3.0000000000000004,4025.697883249793,10,8.536759717766639,144.15418729949874,15.956105808871522,0.03201284894162489,3.8051395766499585,True
10.9,-89.02687603449992,-90.0,-0.9731239655000804,-0.004049925460422434,-0.01999999999999913,-5.0,3.0000000000000004,4025.697883249793,10,8.536759717766639,144.15418729949874,16.02571889973897,0.03201284894162489,3.8051395766499585,True
11.0,-89.0500803981224,-90.0,-0.949919601877598,-0.004049925460422434,-0.01999999999999913,-5.0,3.0000000000000004,4025.697883249793,10,8.536759717766639,144.15418729949874,16.095331990606415,0.03201284894162489,3.8051395766499585,True
11.100000000000001,-89.07328476174489,-90.0,-0.9267152382551157,-0.004049925460422434,-0.01999999999999913,-5.0,3.0000000000000004,4025.697883249793,10,8.536759717766639,144.15418729949874,16.16494508147386,0.03201284894162489,3.8051395766499585,True
11.200000000000001,-89.09648912536737,-90.0,-0.9035108746326334,-0.004049925460422434,-0.01999999999999913,-5.0,3.0000000000000004,4025.697883249793,10,8.536759717766639,144.15418729949874,16.23455817234131,0.03201284894162489,3.8051395766499585,True
11.3,-89.11969348898985,-90.0,-0.880306511010151,-0.004049925460422434,-0.01999999999999913,-5.0,3.0000000000000004,4025.697883249793,10,8.536759717766639,144.15418729949874,16.304171263208755,0.03201284894162489,3.8051395766499585,True
11.4,-89.14289785261234,-90.0,-0.8571021473876687,-0.004049925460422434,-0.01999999999999913,-5.0,3.0000000000000004,4025.697883249793,10,8.536759717766639,144.15418729949874,16.373784354076204,0.03201284894162489,3.8051395766499585,True
11.5,-89.16610221623482,-90.0,-0.8338977837651863,-0.004049925460422434,-0.01999999999999913,-5.0,3.0000000000000004,4025.697883249793,10,8.536759717766639,144.15418729949874,16.44339744494365,0.03201284894162489,3.8051395766499585,True
11.600000000000001,-89.1893065798573,-90.0,-0.810693420142704,-0.004049925460422434,-0.01999999999999913,-5.0,3.0000000000000004,4025.697883249793,10,8.536759717766639,144.15418729949874,16.513010535811098,0.03201284894162489,3.8051395766499585,True
11.700000000000001,-89.21251094347978,-90.0,-0.7874890565202216,-0.004049925460422434,-0.01999999999999913,-5.0,3.0000000000000004,4025.697883249793,10,8.536759717766639,144.15418729949874,16.582623626678544,0.03201284894162489,3.8051395766499585,True
11.8,-89.23571530710225,-90.0,-0.7642846928977393,-0.004049925460422434,-0.01999999999999913,-5.0,3.0000000000000004,4025.697883249793,10,8.536759717766639,144.15418729949874,16.65223671754599,0.03201284894162489,3.8051395766499585,True
11.9,-89.25891967072474,-90.0,-0.741080329275257,-0.004049925460422434,-0.01999999999999913,-5.0,3.0000000000000004,4025.697883249793,10,8.536759717766639,144.15418729949874,16.721849808413438,0.03201284894162489,3.8051395766499585,True
12.0,-89.28212403434722,-90.0,-0.7178759656527747,-0.004049925460422434,-0.01999999999999913,-5.0,3.0000000000000004,4025.697883249793,10,8.536759717766639,144.15418729949874,16.791462899280887,0.03201284894162489,3.8051395766499585,True
12.100000000000001,-89.3053283979697,-90.0,-0.6946716020302923,-0.004049925460422434,-0.01999999999999913,-5.0,3.0000000000000004,4025.697883249793,10,8.536759717766639,144.15418729949874,16.861075990148333,0.03201284894162489,3.8051395766499585,True
12.200000000000001,-89.32853276159219,-90.0,-0.67146723840781,-0.004049925460422434,-0.01999999999999913,-5.0,3.0000000000000004,4025.697883249793,10,8.536759717766639,144.15418729949874,16.930689081015778,0.03201284894162489,3.8051395766499585,True
12.3,-89.35173712521467,-90.0,-0.6482628747853276,-0.004049925460422434,-0.01999999999999913,-5.0,3.0000000000000004,4025.697883249793,10,8.536759717766639,144.15418729949874,17.000302171883227,0.03201284894162489,3.8051395766499585,True
12.4,-89.37494148883715,-90.0,-0.6250585111628453,-0.004049925460422434,-0.01999999999999913,-5.0,3.0000000000000004,4025.697883249793,10,8.536759717766639,144.15418729949874,17.069915262750673,0.03201284894162489,3.8051395766499585,True
12.5,-89.39814585245963,-90.0,-0.6018541475403629,-0.004049925460422434,-0.01999999999999913,-5.0,3.0000000000000004,4025.697883249793,10,8.536759717766639,144.15418729949874,17.139528353618118,0.03201284894162489,3.8051395766499585,True
12.600000000000001,-89.42135021608212,-90.0,-0.5786497839178806,-0.004049925460422434,-0.01999999999999913,-5.0,3.0000000000000004,4025.697883249793,10,8.536759717766639,144.15418729949874,17.209141444485567,0.03201284894162489,3.8051395766499585,True
12.700000000000001,-89.4445545797046,-90.0,-0.5554454202953982,-0.004049925460422434,-0.01999999999999913,-5.0,3.0000000000000004,4025.697883249793,10,8.536759717766639,144.15418729949874,17.278754535353016,0.03201284894162489,3.8051395766499585,True
12.8,-89.46775894332708,-90.0,-0.5322410566729159,-0.004049925460422434,-0.01999999999999913,-5.0,3.0000000000000004,4025.697883249793,10,8.536759717766639,144.15418729949874,17.348367626220462,0.03201284894162489,3.8051395766499585,True
12.9,-89.49096330694957,-90.0,-0.5090366930504335,-0.004049925460422434,-0.01999999999999913,-5.0,3.0000000000000004,4025.697883249793,10,8.536759717766639,144.15418729949874,17.417980717087907,0.03201284894162489,3.8051395766499585,True
13.0,-89.51416767057205,-90.0,-0.4858323294279512,-0.004049925460422434,-0.01999999999999913,-5.0,3.0000000000000004,4025.697883249793,10,8.536759717766639,144.15418729949874,17.487593807955356,0.03201284894162489,3.8051395766499585,True
13.100000000000001,-89.53737203419453,-90.0,-0.46262796580546883,-0.004049925460422434,-0.01999999999999913,-5.0,3.0000000000000004,4025.697883249793,10,8.536759717766639,144.15418729949874,17.557206898822802,0.03201284894162489,3.8051395766499585,True
13.200000000000001,-89.56057639781702,-90.0,-0.4394236021829865,-0.004049925460422434,-0.01999999999999913,-5.0,3.0000000000000004,4025.697883249793,10,8.536759717766639,144.15418729949874,17.626819989690247,0.03201284894162489,3.8051395766499585,True
13.3,-89.5837807614395,-90.0,-0.4162192385605042,-0.004049925460422434,-0.01999999999999913,-5.0,3.0000000000000004,4025.697883249793,10,8.536759717766639,144.15418729949874,17.696433080557696,0.03201284894162489,3.8051395766499585,True
13.4,-89.5837807614395,-90.0,-0.4162192385605042,-6.044715444516026e-17,8.881784197001252e-16,-5.0,3.0000000000000004,4025.697883249793,10,8.536759717766639,144.15418729949874,17.766046171425142,0.03201284894162489,3.8051395766499585,True
13.5,-89.59157957022941,-90.0,-0.4084204297705931,-0.0013611489111742144,0.020000000000000906,-5.0,3.0000000000000004,4025.697883249793,10,8.536759717766639,144.15418729949874,17.766046171425142,0.03201284894162489,3.8051395766499585,True
13.600000000000001,-89.59937837901931,-90.0,-0.40062162098068205,-0.0013611489111742144,0.020000000000000906,-5.0,3.0000000000000004,4025.697883249793,10,8.536759717766639,144.15418729949874,17.789442597794878,0.03201284894162489,3.8051395766499585,True
13.700000000000001,-89.60717718780923,-90.0,-0.39282281219077103,-0.0013611489111742144,0.020000000000000906,-5.0,3.0000000000000004,4025.697883249793,10,8.536759717766639,144.15418729949874,17.81283902416461,0.03201284894162489,3.8051395766499585,True
13.8,-89.61497599659914,-90.0,-0.38502400340085996,-0.0013611489111742144,0.020000000000000906,-5.0,3.0000000000000004,4025.697883249793,10,8.536759717766639,144.15418729949874,17.836235450534343,0.03201284894162489,3.8051395766499585,True
13.9,-89.62277480538906,-90.0,-0.3772251946109489,-0.0013611489111742144,0.020000000000000906,-5.0,3.0000000000000004,4025.697883249793,10,8.536759717766639,144.15418729949874,17.859631876904075,0.03201284894162489,3.8051395766499585,True
14.0,-89.63057361417896,-90.0,-0.3694263858210379,-0.0013611489111742144,0.020000000000000906,-5.0,3.0000000000000004,4025.697883249793,10,8.536759717766639,144.15418729949874,17.88302830327381,0.03201284894162489,3.8051395766499585,True
14.100000000000001,-89.63837242296887,-90.0,-0.3616275770311268,-0.0013611489111742144,0.020000000000000906,-5.0,3.0000000000000004,4025.697883249793,10,8.536759717766639,144.15418729949874,17.90642472964354,0.03201284894162489,3.8051395766499585,True
14.200000000000001,-89.64617123175879,-90.0,-0.35382876824121573,-0.0013611489111742144,0.020000000000000906,-5.0,3.0000000000000004,4025.697883249793,10,8.536759717766639,144.15418729949874,17.929821156013276,0.03201284894162489,3.8051395766499585,True
14.3,-89.6539700405487,-90.0,-0.3460299594513047,-0.0013611489111742144,0.020000000000000906,-5.0,3.0000000000000004,4025.697883249793,10,8.536759717766639,144.15418729949874,17.953217582383008,0.03201284894162489,3.8051395766499585,True
14.4,-89.6617688493386,-90.0,-0.33823115066139364,-0.0013611489111742144,0.020000000000000906,-5.0,3.0000000000000004,4025.697883249793,10,8.536759717766639,144.15418729949874,17.976614008752744,0.03201284894162489,3.8051395766499585,True
14.5,-89.66956765812851,-90.0,-0.33043234187148257,-0.0013611489111742144,0.020000000000000906,-5.0,3.0000000000000004,4025.697883249793,10,8.536759717766639,144.15418729949874,18.000010435122473,0.03201284894162489,3.8051395766499585,True
14.600000000000001,-89.67736646691843,-90.0,-0.32263353308157156,-0.0013611489111742144,0.020000000000000906,-5.0,3.0000000000000004,4025.697883249793,10,8.536759717766639,144.15418729949874,18.02340686149221,0.03201284894162489,3.8051395766499585,True
14.700000000000001,-89.68516527570834,-90.0,-0.3148347242916605,-0.0013611489111742144,0.020000000000000906,-5.0,3.0000000000000004,4025.697883249793,10,8.536759717766639,144.15418729949874,18.04680328786194,0.03201284894162489,3.8051395766499585,True
14.8,-89.69296408449826,-90.0,-0.3070359155017494,-0.0013611489111742144,0.020000000000000906,-5.0,3.0000000000000004,4025.697883249793,10,8.536759717766639,144.15418729949874,18.070199714231673,0.03201284894162489,3.8051395766499585,True
14.9,-89.70076289328816,-90.0,-0.2992371067118384,-0.0013611489111742144,0.020000000000000906,-5.0,3.0000000000000004,4025.697883249793,10,8.536759717766639,144.15418729949874,18.093596140601406,0.03201284894162489,3.8051395766499585,True
